<?xml version="1.0"?>
<opencv_storage>
<stage14>
  <maxWeakCount>23</maxWeakCount>
  <stageThreshold>-1.6167113780975342e+00</stageThreshold>
  <weakClassifiers>
    <_>
      <internalNodes>
        0 -1 3543515 -2.7149025117978454e-04</internalNodes>
      <leafValues>
        4.4827586412429810e-01 -3.5876289010047913e-01</leafValues></_>
    <_>
      <internalNodes>
        0 -1 3543515 1.6957327898126096e-04</internalNodes>
      <leafValues>
        -2.0085096359252930e-01 5.1361697912216187e-01</leafValues></_>
    <_>
      <internalNodes>
        0 -1 2884189 -4.5066146412864327e-04</internalNodes>
      <leafValues>
        7.5658434629440308e-01 -1.1608334630727768e-01</leafValues></_>
    <_>
      <internalNodes>
        0 -1 239053 1.5293590258806944e-03</internalNodes>
      <leafValues>
        -1.6229689121246338e-01 6.3363993167877197e-01</leafValues></_>
    <_>
      <internalNodes>
        0 -1 3397097 2.9948225244879723e-02</internalNodes>
      <leafValues>
        -3.2491844892501831e-01 3.2522904872894287e-01</leafValues></_>
    <_>
      <internalNodes>
        0 -1 1397792 -3.7170838913880289e-04</internalNodes>
      <leafValues>
        8.2305735349655151e-01 -9.9482327699661255e-02</leafValues></_>
    <_>
      <internalNodes>
        0 -1 2811623 -5.2549398969858885e-04</internalNodes>
      <leafValues>
        8.7652426958084106e-01 -7.7562823891639709e-02</leafValues></_>
    <_>
      <internalNodes>
        0 -1 2184490 -1.2699728831648827e-03</internalNodes>
      <leafValues>
        4.9519768357276917e-01 -1.6605979204177856e-01</leafValues></_>
    <_>
      <internalNodes>
        0 -1 2086635 6.6599827259778976e-03</internalNodes>
      <leafValues>
        -2.3269972205162048e-01 4.7134649753570557e-01</leafValues></_>
    <_>
      <internalNodes>
        0 -1 257825 2.3314623103942722e-04</internalNodes>
      <leafValues>
        -1.0857979953289032e-01 6.5079098939895630e-01</leafValues></_>
    <_>
      <internalNodes>
        0 -1 3433275 -8.4713639807887375e-05</internalNodes>
      <leafValues>
        -5.5992680788040161e-01 1.8290895223617554e-01</leafValues></_>
    <_>
      <internalNodes>
        0 -1 1990625 -2.3622704669833183e-02</internalNodes>
      <leafValues>
        6.6327279806137085e-01 -1.5876349806785583e-01</leafValues></_>
    <_>
      <internalNodes>
        0 -1 6 1.1257848382228985e-04</internalNodes>
      <leafValues>
        -1.8913300335407257e-01 4.9190443754196167e-01</leafValues></_>
    <_>
      <internalNodes>
        0 -1 1490027 -6.6793110454455018e-04</internalNodes>
      <leafValues>
        -7.9696619510650635e-01 1.5672202408313751e-01</leafValues></_>
    <_>
      <internalNodes>
        0 -1 2108015 -5.1012746989727020e-03</internalNodes>
      <leafValues>
        5.2013373374938965e-01 -2.1538051962852478e-01</leafValues></_>
    <_>
      <internalNodes>
        0 -1 894058 -3.1157687772065401e-05</internalNodes>
      <leafValues>
        -6.3603186607360840e-01 1.7679998278617859e-01</leafValues></_>
    <_>
      <internalNodes>
        0 -1 15443 2.0256856805644929e-04</internalNodes>
      <leafValues>
        -1.9192093610763550e-01 5.9393692016601562e-01</leafValues></_>
    <_>
      <internalNodes>
        0 -1 2406794 -9.0010929852724075e-05</internalNodes>
      <leafValues>
        -6.8930923938751221e-01 1.4913775026798248e-01</leafValues></_>
    <_>
      <internalNodes>
        0 -1 3523474 -9.2768052127212286e-04</internalNodes>
      <leafValues>
        6.8514239788055420e-01 -1.5427963435649872e-01</leafValues></_>
    <_>
      <internalNodes>
        0 -1 3337490 3.3420330146327615e-04</internalNodes>
      <leafValues>
        1.3959963619709015e-01 -7.2256928682327271e-01</leafValues></_>
    <_>
      <internalNodes>
        0 -1 3561510 -4.0560183697380126e-04</internalNodes>
      <leafValues>
        6.3533806800842285e-01 -1.6750076413154602e-01</leafValues></_>
    <_>
      <internalNodes>
        0 -1 1507309 -4.6303146518766880e-04</internalNodes>
      <leafValues>
        9.1496402025222778e-01 -1.0034159570932388e-01</leafValues></_>
    <_>
      <internalNodes>
        0 -1 70174 1.3330858200788498e-04</internalNodes>
      <leafValues>
        -1.1173068732023239e-01 7.4496585130691528e-01</leafValues></_></weakClassifiers></stage14>
</opencv_storage>
