<?xml version="1.0"?>
<opencv_storage>
<stage4>
  <maxWeakCount>14</maxWeakCount>
  <stageThreshold>-1.2400467395782471e+00</stageThreshold>
  <weakClassifiers>
    <_>
      <internalNodes>
        0 -1 3313523 4.1331283748149872e-02</internalNodes>
      <leafValues>
        -4.3293347954750061e-01 5.2866244316101074e-01</leafValues></_>
    <_>
      <internalNodes>
        0 -1 6 1.4115573139861226e-04</internalNodes>
      <leafValues>
        -2.0993983745574951e-01 6.3881176710128784e-01</leafValues></_>
    <_>
      <internalNodes>
        0 -1 6 -1.1883863771799952e-04</internalNodes>
      <leafValues>
        6.5555602312088013e-01 -2.5944003462791443e-01</leafValues></_>
    <_>
      <internalNodes>
        0 -1 1927876 -1.2971028918400407e-03</internalNodes>
      <leafValues>
        4.9954453110694885e-01 -2.3086147010326385e-01</leafValues></_>
    <_>
      <internalNodes>
        0 -1 123838 4.1763417422771454e-02</internalNodes>
      <leafValues>
        -1.7317652702331543e-01 6.1813151836395264e-01</leafValues></_>
    <_>
      <internalNodes>
        0 -1 3468392 -2.5419949088245630e-04</internalNodes>
      <leafValues>
        6.6926699876785278e-01 -1.4898222684860229e-01</leafValues></_>
    <_>
      <internalNodes>
        0 -1 2307328 -1.8924012780189514e-02</internalNodes>
      <leafValues>
        6.1894774436950684e-01 -1.8669982254505157e-01</leafValues></_>
    <_>
      <internalNodes>
        0 -1 1348779 3.4399174153804779e-02</internalNodes>
      <leafValues>
        -1.9320683181285858e-01 5.7089215517044067e-01</leafValues></_>
    <_>
      <internalNodes>
        0 -1 1887571 -2.2385068237781525e-02</internalNodes>
      <leafValues>
        8.2203704118728638e-01 -1.4147803187370300e-01</leafValues></_>
    <_>
      <internalNodes>
        0 -1 1741401 -7.7663702541030943e-05</internalNodes>
      <leafValues>
        -7.5884461402893066e-01 1.8304368853569031e-01</leafValues></_>
    <_>
      <internalNodes>
        0 -1 1723464 -1.0268422774970531e-03</internalNodes>
      <leafValues>
        6.1199235916137695e-01 -2.0124864578247070e-01</leafValues></_>
    <_>
      <internalNodes>
        0 -1 3523613 -2.0522333215922117e-03</internalNodes>
      <leafValues>
        6.5455442667007446e-01 -1.9123214483261108e-01</leafValues></_>
    <_>
      <internalNodes>
        0 -1 3578033 -3.1399703584611416e-04</internalNodes>
      <leafValues>
        -6.4405769109725952e-01 2.0710331201553345e-01</leafValues></_>
    <_>
      <internalNodes>
        0 -1 3578184 1.7096049850806594e-04</internalNodes>
      <leafValues>
        1.4484000205993652e-01 -7.4208396673202515e-01</leafValues></_></weakClassifiers></stage4>
</opencv_storage>
